-0.00019616129500408256
2.7847086608381898e-06
-5.208754529141902e-05
6.068022754192928e-06
2.504473540213907e-05
3.758501518528557e-05
1.832705570746836e-05
5.630259631391932e-05
3.3996279995039664e-05
1.559310301446389e-05
7.344566808979441e-08
1.4841376100688952e-05
-9.995191610434559e-05
2.4621592781470388e-06
-5.033051528651037e-06
1.6780424909287997e-05
9.23883463133522e-05
4.361178032500113e-05
3.376716090132478e-05
-8.719588084835858e-06
4.0183400280214395e-05
0.0001281183961465654
3.625564924544738e-05
4.777460733006774e-05
4.083087649265717e-05
-0.0003680960861513534
-0.00016984528832260633
-0.0005151545026920505
-7.405981105875132e-05
-6.799372649199605e-05
-6.806793540889852e-05
-4.291491784806405e-05
-3.27859896220105e-05
-6.137760000807962e-05
-3.3002471947903616e-05
-6.770716941138456e-05
-5.2562564180022554e-05
-7.414955111003132e-05
-7.542089010677527e-06
-4.894319630567354e-05
-2.7278963243495897e-05
-3.26680123032003e-05
-8.985677646414435e-05
-2.699312646989535e-05
-4.867666994214885e-05
-0.00013194028331573132
-0.00011934354386628146
-2.989788626745724e-06
-2.1837044597125724e-05
-1.6738608492213002e-05
-4.3287561878113556e-05
-7.819742219282655e-06
6.810920978110284e-05
3.1224402904155234e-05
5.1203494829513235e-06
0.00014819764027798856
0.005211911731636691
-1.072653949695729e-06
