-0.02930956845995262
-0.0008652055782987318
-0.006783821198778517
-0.0025736849880593706
0.001688494353354019
-0.00027454043739912954
0.0007381446362080917
0.0034286161537375355
0.001978066376441306
0.0008244911563505264
-0.0028455659017351575
0.0006905701481146616
-0.015612170513337114
-0.0006538996274223042
-0.0006662087869508949
0.0011741815504708445
0.005603514471800217
0.0018820098802426984
0.0011025929246351288
-0.019079989049744468
0.0027656904128967705
0.0017816983610006475
0.002836167538685728
0.0036920474928648656
0.00300777998208069
-0.04023982448581804
-0.018811652289495315
-0.04480821095337189
-0.00853319899365943
-0.007316062670682252
-0.007599838576207149
-0.004673144395273677
-0.0035645699278587625
-0.0068751261497252796
-0.0035948720696045784
-0.00756436558074937
-0.005965845862279308
-0.00887593544815639
-0.0008206574883395576
-0.0058130024065352745
-0.003384476807164332
-0.003637378514794332
-0.009649650979199656
-0.003152449771741628
-0.0053703730886036525
-0.015448130501875879
-0.013658484856445571
-0.00032514204172547984
-0.0024000972698695394
-0.0019618879251333205
-0.00565421524780185
-0.0009074798231085677
0.003263358091565928
0.0023276915948196478
0.00013905630280828477
-0.04184180965769779
0.038696916965886195
-0.016188437039687066
