-1.188516051208401
-0.048516597553309865
-0.3345959046402497
-0.12267286041675209
0.05807644316643971
-0.04803570707382365
0.02195447825465072
0.10621356383644563
0.05642118054810096
0.024047530869263502
-0.13914662102422765
0.01835422853122418
-0.652626981590052
-0.03482835545897303
-0.034061751637366536
0.04489458903198793
0.16880706255591793
0.054929700042481655
0.016832737538556842
-0.8309613823482559
0.09270179979263007
-0.03035495979439834
0.08527283065995832
0.12870793714212372
0.09746689152187255
-1.4978786945070965
-0.7085540695707765
-0.870354308818631
-0.3363948006832964
-0.2767949159679643
-0.29059701562699825
-0.18050515765160502
-0.13444454577896015
-0.26351848104107245
-0.13556288922287904
-0.30174972946203615
-0.2234848935370618
-0.3547645245905779
-0.030312196112187245
-0.2393425105163309
-0.12802985224828417
-0.15700275897522312
-0.35555684460623577
-0.12480960149690258
-0.2082419777525692
-0.557042037431159
-0.5312682823478059
-0.0119447111352816
-0.09488805831852488
-0.07813789791800256
-0.22515692165060155
-0.03723028071167122
0.07294491821157735
0.07581479181459513
-0.0021504031325411
-1.7604421911194297
1.741701270518367
-0.07442268039870092
